[-3.16753089e-02  9.52201560e-02  2.23818310e-02 -1.74225271e-02
 -1.87291443e-01  2.21670941e-02 -7.31247440e-02 -9.89646539e-02
  1.08001381e-01 -1.16592981e-01  2.82731503e-01 -4.38223854e-02
 -2.37020686e-01  5.90003468e-02 -3.03126127e-02  1.36796221e-01
 -1.38755471e-01 -5.26350550e-02 -1.56447321e-01 -5.76296337e-02
  3.81550030e-03 -1.00641628e-04  3.35724540e-02  5.10505065e-02
 -9.21646655e-02 -2.75166899e-01 -1.77528001e-02 -3.01087499e-02
  1.13232680e-01 -1.20803200e-01 -4.78181913e-02  4.99848165e-02
 -1.07891604e-01  5.73805999e-03  2.27266047e-02  1.90616846e-02
 -4.87229824e-02 -4.04322818e-02  2.66877025e-01  1.77443493e-03
 -2.70153046e-01  1.06453478e-01 -2.86326669e-02  2.98098356e-01
  2.05676183e-01  3.56856436e-02  2.01038495e-02 -7.91740641e-02
  1.07201412e-01 -2.75929123e-01  5.44615313e-02  1.43288538e-01
  1.89970955e-01 -2.32973211e-02  4.66416180e-02 -2.23096743e-01
 -3.34926881e-04  1.67847306e-01 -1.29973337e-01  5.86212203e-02
  8.67064893e-02 -7.15342015e-02  1.51499119e-02 -7.46695325e-02
  2.37597674e-01  1.19988717e-01 -1.43625483e-01 -1.10375337e-01
  1.24941073e-01 -7.77816176e-02 -5.45337796e-02  1.31157458e-01
 -1.25801742e-01 -1.98210910e-01 -2.48739615e-01 -1.80046260e-02
  4.51875925e-01  1.27336770e-01 -2.97562569e-01 -7.25601166e-02
 -5.92360683e-02  1.76340006e-02  1.09804332e-01  5.26839904e-02
 -1.09633602e-01 -1.22279465e-01 -1.29198045e-01 -4.88205533e-03
  2.22621992e-01 -6.18541725e-02 -7.60440826e-02  2.01830804e-01
  7.23597780e-02 -2.03462355e-02 -1.19979074e-02  7.89206922e-02
 -1.11165598e-01 -2.29617488e-02 -1.08228490e-01 -4.68074568e-02
  6.10472672e-02 -1.12532288e-01 -2.01920345e-02  1.21942222e-01
 -2.90898025e-01  2.61143327e-01 -2.47191861e-02  3.06887180e-03
  4.11494449e-02  2.83480752e-02 -3.23854312e-02  8.16646069e-02
  2.11045295e-01 -3.09459388e-01  2.19749928e-01  2.19013900e-01
  7.40802437e-02  1.20841980e-01  6.09992817e-02  4.73274570e-03
 -5.41413669e-03  5.31279016e-03 -1.91687584e-01 -1.48410052e-01
  1.41489320e-02 -1.12027876e-01  9.25319642e-02  5.01279905e-02]