[-0.16017273  0.15142141  0.07747979  0.05384795 -0.21228758  0.09490615
 -0.03262679 -0.10621653  0.05682986 -0.05073482  0.2355202  -0.0292156
 -0.25701937  0.08056005 -0.09114625  0.11327925 -0.08974595 -0.09779207
 -0.15012464 -0.04075591  0.03296256  0.08818117  0.01226782  0.00756968
 -0.12463278 -0.3021622   0.02095569 -0.06102598  0.0834524  -0.11989065
 -0.06659804  0.00934616 -0.15814015 -0.00819078  0.00922628  0.10059242
 -0.07943534 -0.01815306  0.2153248   0.02943319 -0.26137954  0.08622017
 -0.01338548  0.3545768   0.24424724  0.01415938 -0.02356252 -0.11787498
  0.08434325 -0.26501191  0.06798454  0.15365447  0.14449219  0.07419795
 -0.00724082 -0.13340563 -0.01728226  0.14922106 -0.11484279  0.03886516
  0.11256408 -0.12061135  0.01651351 -0.12042056  0.20076656  0.08817399
 -0.07971294 -0.10493165  0.13261439 -0.10697362 -0.10363375  0.11397696
 -0.10956042 -0.15831962 -0.23681006  0.03661587  0.44751191  0.1272615
 -0.24733342 -0.08905087 -0.05858002  0.01827659  0.1226759   0.07024861
 -0.03311547 -0.12597477 -0.08419462  0.04601464  0.2610248  -0.07342012
 -0.04322141  0.18607442  0.07909694 -0.04177597  0.04360303  0.10416663
 -0.09031045  0.01711276 -0.11610981 -0.04481537  0.01731201 -0.08853903
  0.03168412  0.11555279 -0.23578636  0.24490415 -0.00046159  0.02397569
  0.09765331 -0.08166102 -0.01058583  0.06079733  0.22254336 -0.26296288
  0.2634342   0.18442222  0.02275298  0.11694885  0.0522642   0.03189348
 -0.02400179  0.01727905 -0.2213424  -0.10530829  0.07811868 -0.08784813
  0.04890897  0.03971131]